#pragma once
#include <cstdarg>
namespace Eloquent {
    namespace ML {
        namespace Port {
            class RandomForest {
                public:
                    /**
                    * Predict class for features vector
                    */
                    int predict(float *x) {
                        uint8_t votes[4] = { 0 };
                        // tree #1
                        if (x[3] <= -87.6150016784668) {
                            if (x[11] <= -12.990000247955322) {
                                if (x[5] <= 2.4274460077285767) {
                                    votes[3] += 1;
                                }

                                else {
                                    if (x[2] <= -23.99000072479248) {
                                        votes[1] += 1;
                                    }

                                    else {
                                        if (x[0] <= -62.49300193786621) {
                                            votes[1] += 1;
                                        }

                                        else {
                                            votes[3] += 1;
                                        }
                                    }
                                }
                            }

                            else {
                                if (x[2] <= -11.204999685287476) {
                                    if (x[6] <= -1.3650000095367432) {
                                        votes[1] += 1;
                                    }

                                    else {
                                        votes[2] += 1;
                                    }
                                }

                                else {
                                    votes[3] += 1;
                                }
                            }
                        }

                        else {
                            if (x[10] <= 9.680000305175781) {
                                if (x[0] <= -44.38644981384277) {
                                    if (x[3] <= -55.529998779296875) {
                                        if (x[3] <= -82.25) {
                                            votes[3] += 1;
                                        }

                                        else {
                                            votes[1] += 1;
                                        }
                                    }

                                    else {
                                        votes[2] += 1;
                                    }
                                }

                                else {
                                    if (x[1] <= 13.804606437683105) {
                                        if (x[8] <= -9.950249671936035) {
                                            votes[3] += 1;
                                        }

                                        else {
                                            votes[0] += 1;
                                        }
                                    }

                                    else {
                                        votes[3] += 1;
                                    }
                                }
                            }

                            else {
                                votes[0] += 1;
                            }
                        }

                        // tree #2
                        if (x[3] <= -87.0150032043457) {
                            if (x[9] <= 4.352686882019043) {
                                if (x[5] <= 2.933256506919861) {
                                    if (x[6] <= -1.8349999785423279) {
                                        votes[3] += 1;
                                    }

                                    else {
                                        votes[2] += 1;
                                    }
                                }

                                else {
                                    if (x[6] <= 1.7100000977516174) {
                                        votes[1] += 1;
                                    }

                                    else {
                                        votes[3] += 1;
                                    }
                                }
                            }

                            else {
                                if (x[9] <= 8.959015846252441) {
                                    if (x[4] <= -4.42674994468689) {
                                        if (x[0] <= -53.04185104370117) {
                                            if (x[5] <= 30.90926742553711) {
                                                votes[1] += 1;
                                            }

                                            else {
                                                votes[0] += 1;
                                            }
                                        }

                                        else {
                                            votes[3] += 1;
                                        }
                                    }

                                    else {
                                        if (x[4] <= -3.015399932861328) {
                                            votes[1] += 1;
                                        }

                                        else {
                                            if (x[6] <= 0.13999998569488525) {
                                                votes[3] += 1;
                                            }

                                            else {
                                                votes[1] += 1;
                                            }
                                        }
                                    }
                                }

                                else {
                                    if (x[8] <= -10.696499824523926) {
                                        if (x[11] <= -34.59499931335449) {
                                            votes[1] += 1;
                                        }

                                        else {
                                            votes[3] += 1;
                                        }
                                    }

                                    else {
                                        votes[1] += 1;
                                    }
                                }
                            }
                        }

                        else {
                            if (x[1] <= 13.847193241119385) {
                                if (x[5] <= 2.253830909729004) {
                                    if (x[0] <= -28.197749137878418) {
                                        votes[2] += 1;
                                    }

                                    else {
                                        if (x[4] <= -1.466549962759018) {
                                            votes[3] += 1;
                                        }

                                        else {
                                            votes[0] += 1;
                                        }
                                    }
                                }

                                else {
                                    if (x[0] <= -55.762399673461914) {
                                        if (x[4] <= 0.06340000033378601) {
                                            votes[1] += 1;
                                        }

                                        else {
                                            votes[0] += 1;
                                        }
                                    }

                                    else {
                                        votes[0] += 1;
                                    }
                                }
                            }

                            else {
                                if (x[3] <= -84.47999954223633) {
                                    if (x[6] <= 9.430000066757202) {
                                        votes[2] += 1;
                                    }

                                    else {
                                        votes[0] += 1;
                                    }
                                }

                                else {
                                    votes[3] += 1;
                                }
                            }
                        }

                        // tree #3
                        if (x[9] <= 4.359042406082153) {
                            if (x[3] <= -174.02000045776367) {
                                votes[3] += 1;
                            }

                            else {
                                if (x[4] <= -4.095149874687195) {
                                    votes[1] += 1;
                                }

                                else {
                                    if (x[2] <= -13.895000219345093) {
                                        if (x[0] <= -40.83654975891113) {
                                            votes[2] += 1;
                                        }

                                        else {
                                            votes[0] += 1;
                                        }
                                    }

                                    else {
                                        if (x[3] <= -7.534999892115593) {
                                            votes[3] += 1;
                                        }

                                        else {
                                            votes[0] += 1;
                                        }
                                    }
                                }
                            }
                        }

                        else {
                            if (x[3] <= -89.76499938964844) {
                                if (x[11] <= -28.324999809265137) {
                                    votes[1] += 1;
                                }

                                else {
                                    if (x[2] <= -31.415000438690186) {
                                        votes[1] += 1;
                                    }

                                    else {
                                        votes[3] += 1;
                                    }
                                }
                            }

                            else {
                                if (x[2] <= -19.40000057220459) {
                                    if (x[10] <= 9.684999942779541) {
                                        if (x[6] <= 9.269999980926514) {
                                            if (x[3] <= -59.32499885559082) {
                                                votes[1] += 1;
                                            }

                                            else {
                                                votes[3] += 1;
                                            }
                                        }

                                        else {
                                            votes[0] += 1;
                                        }
                                    }

                                    else {
                                        votes[0] += 1;
                                    }
                                }

                                else {
                                    if (x[0] <= -1.1911500692367554) {
                                        if (x[1] <= 6.375665664672852) {
                                            votes[0] += 1;
                                        }

                                        else {
                                            votes[3] += 1;
                                        }
                                    }

                                    else {
                                        votes[0] += 1;
                                    }
                                }
                            }
                        }

                        // tree #4
                        if (x[7] <= -8.795000076293945) {
                            if (x[7] <= -22.050000190734863) {
                                votes[1] += 1;
                            }

                            else {
                                if (x[0] <= -56.6828498840332) {
                                    if (x[1] <= 23.594009399414062) {
                                        votes[1] += 1;
                                    }

                                    else {
                                        if (x[2] <= -23.7199999243021) {
                                            votes[2] += 1;
                                        }

                                        else {
                                            votes[1] += 1;
                                        }
                                    }
                                }

                                else {
                                    if (x[10] <= 12.335000038146973) {
                                        votes[3] += 1;
                                    }

                                    else {
                                        votes[1] += 1;
                                    }
                                }
                            }
                        }

                        else {
                            if (x[10] <= 9.860000133514404) {
                                if (x[0] <= -42.23425102233887) {
                                    votes[2] += 1;
                                }

                                else {
                                    if (x[3] <= -59.545000076293945) {
                                        votes[0] += 1;
                                    }

                                    else {
                                        if (x[9] <= 3.9068716764450073) {
                                            votes[0] += 1;
                                        }

                                        else {
                                            votes[3] += 1;
                                        }
                                    }
                                }
                            }

                            else {
                                if (x[3] <= -94.31999969482422) {
                                    votes[1] += 1;
                                }

                                else {
                                    votes[0] += 1;
                                }
                            }
                        }

                        // tree #5
                        if (x[4] <= -1.9857999682426453) {
                            if (x[5] <= 5.953756093978882) {
                                if (x[6] <= -0.4450000077486038) {
                                    if (x[0] <= -56.34654998779297) {
                                        votes[1] += 1;
                                    }

                                    else {
                                        if (x[11] <= -8.744999885559082) {
                                            votes[3] += 1;
                                        }

                                        else {
                                            votes[1] += 1;
                                        }
                                    }
                                }

                                else {
                                    if (x[6] <= 2.8899999856948853) {
                                        if (x[1] <= 19.147367477416992) {
                                            votes[1] += 1;
                                        }

                                        else {
                                            votes[2] += 1;
                                        }
                                    }

                                    else {
                                        if (x[3] <= -108.23500061035156) {
                                            votes[1] += 1;
                                        }

                                        else {
                                            votes[3] += 1;
                                        }
                                    }
                                }
                            }

                            else {
                                if (x[2] <= -28.285000801086426) {
                                    if (x[3] <= -89.76499938964844) {
                                        votes[1] += 1;
                                    }

                                    else {
                                        votes[0] += 1;
                                    }
                                }

                                else {
                                    votes[3] += 1;
                                }
                            }
                        }

                        else {
                            if (x[9] <= 4.101669549942017) {
                                if (x[0] <= -40.83654975891113) {
                                    if (x[0] <= -80.9166488647461) {
                                        if (x[5] <= 2.095780670642853) {
                                            votes[2] += 1;
                                        }

                                        else {
                                            votes[3] += 1;
                                        }
                                    }

                                    else {
                                        votes[2] += 1;
                                    }
                                }

                                else {
                                    votes[0] += 1;
                                }
                            }

                            else {
                                if (x[7] <= -6.784999847412109) {
                                    if (x[5] <= 4.107916712760925) {
                                        votes[1] += 1;
                                    }

                                    else {
                                        if (x[10] <= 14.03000020980835) {
                                            if (x[4] <= 0.37450002133846283) {
                                                votes[0] += 1;
                                            }

                                            else {
                                                if (x[3] <= -60.375) {
                                                    votes[0] += 1;
                                                }

                                                else {
                                                    votes[3] += 1;
                                                }
                                            }
                                        }

                                        else {
                                            votes[1] += 1;
                                        }
                                    }
                                }

                                else {
                                    votes[0] += 1;
                                }
                            }
                        }

                        // tree #6
                        if (x[7] <= -6.869999885559082) {
                            if (x[2] <= -26.554999351501465) {
                                if (x[6] <= 3.1050000190734863) {
                                    votes[1] += 1;
                                }

                                else {
                                    if (x[8] <= -1.9152000397443771) {
                                        if (x[9] <= 4.532150745391846) {
                                            votes[2] += 1;
                                        }

                                        else {
                                            votes[0] += 1;
                                        }
                                    }

                                    else {
                                        if (x[10] <= 13.509999752044678) {
                                            if (x[10] <= 11.324999809265137) {
                                                votes[1] += 1;
                                            }

                                            else {
                                                votes[0] += 1;
                                            }
                                        }

                                        else {
                                            votes[1] += 1;
                                        }
                                    }
                                }
                            }

                            else {
                                if (x[9] <= 11.368590831756592) {
                                    votes[3] += 1;
                                }

                                else {
                                    if (x[9] <= 13.254968166351318) {
                                        votes[1] += 1;
                                    }

                                    else {
                                        votes[3] += 1;
                                    }
                                }
                            }
                        }

                        else {
                            if (x[0] <= -39.600399017333984) {
                                if (x[5] <= 2.303205728530884) {
                                    votes[2] += 1;
                                }

                                else {
                                    if (x[1] <= 26.141026496887207) {
                                        if (x[3] <= -91.09000015258789) {
                                            votes[3] += 1;
                                        }

                                        else {
                                            votes[0] += 1;
                                        }
                                    }

                                    else {
                                        votes[2] += 1;
                                    }
                                }
                            }

                            else {
                                if (x[5] <= 1.006181389093399) {
                                    votes[3] += 1;
                                }

                                else {
                                    votes[0] += 1;
                                }
                            }
                        }

                        // tree #7
                        if (x[7] <= -8.795000076293945) {
                            if (x[2] <= -34.92500019073486) {
                                if (x[0] <= -73.01725006103516) {
                                    votes[2] += 1;
                                }

                                else {
                                    votes[1] += 1;
                                }
                            }

                            else {
                                if (x[7] <= -8.884999752044678) {
                                    if (x[2] <= -19.449999809265137) {
                                        if (x[2] <= -24.91999912261963) {
                                            votes[2] += 1;
                                        }

                                        else {
                                            votes[0] += 1;
                                        }
                                    }

                                    else {
                                        votes[3] += 1;
                                    }
                                }

                                else {
                                    votes[1] += 1;
                                }
                            }
                        }

                        else {
                            if (x[9] <= 3.849613904953003) {
                                if (x[8] <= -4.6811500787734985) {
                                    if (x[7] <= -7.5950000286102295) {
                                        votes[2] += 1;
                                    }

                                    else {
                                        votes[3] += 1;
                                    }
                                }

                                else {
                                    if (x[10] <= 5.054999947547913) {
                                        votes[2] += 1;
                                    }

                                    else {
                                        if (x[6] <= 4.920000076293945) {
                                            votes[2] += 1;
                                        }

                                        else {
                                            votes[3] += 1;
                                        }
                                    }
                                }
                            }

                            else {
                                if (x[6] <= 0.6550000309944153) {
                                    votes[3] += 1;
                                }

                                else {
                                    if (x[3] <= -94.7300033569336) {
                                        votes[1] += 1;
                                    }

                                    else {
                                        votes[0] += 1;
                                    }
                                }
                            }
                        }

                        // tree #8
                        if (x[2] <= -17.604999542236328) {
                            if (x[6] <= 3.1500000953674316) {
                                if (x[7] <= -8.90500020980835) {
                                    if (x[9] <= 1.9531901180744171) {
                                        votes[3] += 1;
                                    }

                                    else {
                                        votes[1] += 1;
                                    }
                                }

                                else {
                                    votes[2] += 1;
                                }
                            }

                            else {
                                if (x[10] <= 3.7399998903274536) {
                                    if (x[6] <= 6.7250001430511475) {
                                        votes[2] += 1;
                                    }

                                    else {
                                        if (x[1] <= 12.325889587402344) {
                                            votes[0] += 1;
                                        }

                                        else {
                                            if (x[8] <= -6.1844000816345215) {
                                                votes[1] += 1;
                                            }

                                            else {
                                                votes[3] += 1;
                                            }
                                        }
                                    }
                                }

                                else {
                                    if (x[1] <= 18.977672576904297) {
                                        if (x[7] <= -7.134999990463257) {
                                            if (x[8] <= -5.105750143527985) {
                                                votes[0] += 1;
                                            }

                                            else {
                                                votes[1] += 1;
                                            }
                                        }

                                        else {
                                            votes[0] += 1;
                                        }
                                    }

                                    else {
                                        votes[1] += 1;
                                    }
                                }
                            }
                        }

                        else {
                            if (x[2] <= -0.435000017285347) {
                                if (x[7] <= -2.5649999380111694) {
                                    votes[3] += 1;
                                }

                                else {
                                    votes[2] += 1;
                                }
                            }

                            else {
                                if (x[8] <= -4.061349928379059) {
                                    votes[1] += 1;
                                }

                                else {
                                    votes[0] += 1;
                                }
                            }
                        }

                        // tree #9
                        if (x[2] <= -37.170000076293945) {
                            if (x[11] <= -15.109999656677246) {
                                if (x[11] <= -18.644999504089355) {
                                    if (x[1] <= 11.65657663345337) {
                                        if (x[3] <= -85.95999908447266) {
                                            votes[1] += 1;
                                        }

                                        else {
                                            votes[0] += 1;
                                        }
                                    }

                                    else {
                                        votes[1] += 1;
                                    }
                                }

                                else {
                                    if (x[0] <= -57.605899810791016) {
                                        votes[0] += 1;
                                    }

                                    else {
                                        votes[1] += 1;
                                    }
                                }
                            }

                            else {
                                if (x[11] <= -10.925000190734863) {
                                    if (x[5] <= 3.819841504096985) {
                                        votes[3] += 1;
                                    }

                                    else {
                                        votes[0] += 1;
                                    }
                                }

                                else {
                                    if (x[9] <= 4.106731176376343) {
                                        if (x[8] <= -1.1990000009536743) {
                                            votes[2] += 1;
                                        }

                                        else {
                                            votes[1] += 1;
                                        }
                                    }

                                    else {
                                        votes[1] += 1;
                                    }
                                }
                            }
                        }

                        else {
                            if (x[6] <= -0.5450000017881393) {
                                votes[3] += 1;
                            }

                            else {
                                if (x[4] <= -0.5126499980688095) {
                                    if (x[3] <= -104.0099983215332) {
                                        if (x[4] <= -3.5240999460220337) {
                                            votes[1] += 1;
                                        }

                                        else {
                                            votes[2] += 1;
                                        }
                                    }

                                    else {
                                        if (x[2] <= -18.770000457763672) {
                                            if (x[3] <= -90.70999908447266) {
                                                votes[2] += 1;
                                            }

                                            else {
                                                votes[0] += 1;
                                            }
                                        }

                                        else {
                                            if (x[3] <= -35.0299990773201) {
                                                votes[3] += 1;
                                            }

                                            else {
                                                votes[0] += 1;
                                            }
                                        }
                                    }
                                }

                                else {
                                    if (x[0] <= -45.35715103149414) {
                                        votes[2] += 1;
                                    }

                                    else {
                                        votes[0] += 1;
                                    }
                                }
                            }
                        }

                        // tree #10
                        if (x[4] <= -2.233799993991852) {
                            if (x[2] <= -38.48000144958496) {
                                if (x[1] <= 23.594009399414062) {
                                    votes[1] += 1;
                                }

                                else {
                                    if (x[4] <= -5.8198500871658325) {
                                        votes[1] += 1;
                                    }

                                    else {
                                        votes[2] += 1;
                                    }
                                }
                            }

                            else {
                                if (x[6] <= 9.035000085830688) {
                                    if (x[3] <= -104.5) {
                                        if (x[11] <= -9.309999942779541) {
                                            votes[3] += 1;
                                        }

                                        else {
                                            votes[2] += 1;
                                        }
                                    }

                                    else {
                                        votes[3] += 1;
                                    }
                                }

                                else {
                                    votes[1] += 1;
                                }
                            }
                        }

                        else {
                            if (x[11] <= -9.700000286102295) {
                                if (x[3] <= -91.09000015258789) {
                                    if (x[8] <= -4.528050065040588) {
                                        votes[3] += 1;
                                    }

                                    else {
                                        votes[1] += 1;
                                    }
                                }

                                else {
                                    if (x[10] <= 1.1649999618530273) {
                                        votes[3] += 1;
                                    }

                                    else {
                                        votes[0] += 1;
                                    }
                                }
                            }

                            else {
                                if (x[10] <= 5.949999809265137) {
                                    votes[2] += 1;
                                }

                                else {
                                    if (x[9] <= 3.817185401916504) {
                                        votes[3] += 1;
                                    }

                                    else {
                                        votes[2] += 1;
                                    }
                                }
                            }
                        }

                        // tree #11
                        if (x[1] <= 13.33482837677002) {
                            if (x[5] <= 2.253830909729004) {
                                if (x[6] <= -1.1350000500679016) {
                                    if (x[3] <= -62.43499946594238) {
                                        votes[1] += 1;
                                    }

                                    else {
                                        votes[3] += 1;
                                    }
                                }

                                else {
                                    if (x[2] <= -30.414999961853027) {
                                        votes[2] += 1;
                                    }

                                    else {
                                        votes[0] += 1;
                                    }
                                }
                            }

                            else {
                                if (x[2] <= -53.4950008392334) {
                                    votes[3] += 1;
                                }

                                else {
                                    votes[0] += 1;
                                }
                            }
                        }

                        else {
                            if (x[0] <= -50.125749588012695) {
                                if (x[4] <= -3.8753498792648315) {
                                    if (x[5] <= 2.1560429334640503) {
                                        votes[3] += 1;
                                    }

                                    else {
                                        votes[1] += 1;
                                    }
                                }

                                else {
                                    if (x[10] <= 9.180000305175781) {
                                        if (x[2] <= -49.709999084472656) {
                                            votes[1] += 1;
                                        }

                                        else {
                                            if (x[6] <= 6.93500018119812) {
                                                votes[2] += 1;
                                            }

                                            else {
                                                if (x[9] <= 3.006866693496704) {
                                                    votes[2] += 1;
                                                }

                                                else {
                                                    votes[3] += 1;
                                                }
                                            }
                                        }
                                    }

                                    else {
                                        votes[0] += 1;
                                    }
                                }
                            }

                            else {
                                votes[3] += 1;
                            }
                        }

                        // tree #12
                        if (x[7] <= -6.784999847412109) {
                            if (x[2] <= -37.170000076293945) {
                                if (x[9] <= 2.8022782802581787) {
                                    votes[2] += 1;
                                }

                                else {
                                    if (x[7] <= -287.26000022888184) {
                                        votes[0] += 1;
                                    }

                                    else {
                                        if (x[4] <= -1.8830500394105911) {
                                            votes[1] += 1;
                                        }

                                        else {
                                            if (x[4] <= -0.18765000253915787) {
                                                votes[0] += 1;
                                            }

                                            else {
                                                votes[1] += 1;
                                            }
                                        }
                                    }
                                }
                            }

                            else {
                                if (x[1] <= 13.261439800262451) {
                                    votes[0] += 1;
                                }

                                else {
                                    if (x[9] <= 11.368590831756592) {
                                        votes[3] += 1;
                                    }

                                    else {
                                        votes[1] += 1;
                                    }
                                }
                            }
                        }

                        else {
                            if (x[6] <= 1.7600000500679016) {
                                if (x[0] <= -26.663399934768677) {
                                    votes[2] += 1;
                                }

                                else {
                                    if (x[4] <= -1.4961999729275703) {
                                        votes[3] += 1;
                                    }

                                    else {
                                        votes[0] += 1;
                                    }
                                }
                            }

                            else {
                                if (x[1] <= 20.525758743286133) {
                                    if (x[10] <= -0.3050000071525574) {
                                        votes[3] += 1;
                                    }

                                    else {
                                        votes[0] += 1;
                                    }
                                }

                                else {
                                    votes[2] += 1;
                                }
                            }
                        }

                        // tree #13
                        if (x[4] <= -2.6232500076293945) {
                            if (x[10] <= 6.674999952316284) {
                                if (x[0] <= -54.646100997924805) {
                                    if (x[7] <= -12.630000114440918) {
                                        votes[1] += 1;
                                    }

                                    else {
                                        votes[2] += 1;
                                    }
                                }

                                else {
                                    votes[3] += 1;
                                }
                            }

                            else {
                                if (x[8] <= -9.302149772644043) {
                                    votes[3] += 1;
                                }

                                else {
                                    if (x[5] <= 31.660236835479736) {
                                        if (x[2] <= -21.924999237060547) {
                                            votes[1] += 1;
                                        }

                                        else {
                                            if (x[6] <= 5.930000007152557) {
                                                votes[3] += 1;
                                            }

                                            else {
                                                votes[1] += 1;
                                            }
                                        }
                                    }

                                    else {
                                        votes[0] += 1;
                                    }
                                }
                            }
                        }

                        else {
                            if (x[9] <= 4.356160879135132) {
                                if (x[2] <= -7.569999933242798) {
                                    if (x[6] <= 6.140000104904175) {
                                        votes[2] += 1;
                                    }

                                    else {
                                        if (x[4] <= 1.8638499975204468) {
                                            if (x[6] <= 6.960000038146973) {
                                                votes[3] += 1;
                                            }

                                            else {
                                                votes[2] += 1;
                                            }
                                        }

                                        else {
                                            votes[0] += 1;
                                        }
                                    }
                                }

                                else {
                                    if (x[0] <= -41.86379837989807) {
                                        votes[3] += 1;
                                    }

                                    else {
                                        votes[0] += 1;
                                    }
                                }
                            }

                            else {
                                if (x[4] <= 1.1476500034332275) {
                                    if (x[4] <= -0.15370000153779984) {
                                        if (x[11] <= -21.704999923706055) {
                                            if (x[0] <= -43.96824932098389) {
                                                votes[1] += 1;
                                            }

                                            else {
                                                votes[0] += 1;
                                            }
                                        }

                                        else {
                                            votes[0] += 1;
                                        }
                                    }

                                    else {
                                        if (x[0] <= -46.32835006713867) {
                                            votes[1] += 1;
                                        }

                                        else {
                                            votes[3] += 1;
                                        }
                                    }
                                }

                                else {
                                    votes[0] += 1;
                                }
                            }
                        }

                        // tree #14
                        if (x[11] <= -11.78499984741211) {
                            if (x[2] <= -40.93000030517578) {
                                if (x[3] <= -87.6150016784668) {
                                    votes[1] += 1;
                                }

                                else {
                                    votes[0] += 1;
                                }
                            }

                            else {
                                if (x[7] <= -6.784999847412109) {
                                    if (x[11] <= -30.440000534057617) {
                                        votes[1] += 1;
                                    }

                                    else {
                                        votes[3] += 1;
                                    }
                                }

                                else {
                                    if (x[9] <= 6.3329384326934814) {
                                        votes[3] += 1;
                                    }

                                    else {
                                        votes[0] += 1;
                                    }
                                }
                            }
                        }

                        else {
                            if (x[2] <= -11.204999685287476) {
                                if (x[5] <= 2.087009310722351) {
                                    votes[2] += 1;
                                }

                                else {
                                    if (x[10] <= 6.890000104904175) {
                                        if (x[1] <= 17.112086296081543) {
                                            if (x[5] <= 3.5906176567077637) {
                                                votes[3] += 1;
                                            }

                                            else {
                                                votes[0] += 1;
                                            }
                                        }

                                        else {
                                            votes[2] += 1;
                                        }
                                    }

                                    else {
                                        votes[1] += 1;
                                    }
                                }
                            }

                            else {
                                if (x[9] <= 3.2183245420455933) {
                                    votes[0] += 1;
                                }

                                else {
                                    votes[3] += 1;
                                }
                            }
                        }

                        // tree #15
                        if (x[7] <= -6.854999780654907) {
                            if (x[1] <= 14.453386306762695) {
                                if (x[1] <= 11.715170860290527) {
                                    if (x[6] <= 6.315000057220459) {
                                        votes[1] += 1;
                                    }

                                    else {
                                        votes[0] += 1;
                                    }
                                }

                                else {
                                    votes[1] += 1;
                                }
                            }

                            else {
                                if (x[6] <= -0.7350000143051147) {
                                    if (x[2] <= -39.08500099182129) {
                                        votes[1] += 1;
                                    }

                                    else {
                                        votes[3] += 1;
                                    }
                                }

                                else {
                                    if (x[10] <= 7.395000219345093) {
                                        if (x[2] <= -24.969999313354492) {
                                            votes[2] += 1;
                                        }

                                        else {
                                            votes[3] += 1;
                                        }
                                    }

                                    else {
                                        votes[1] += 1;
                                    }
                                }
                            }
                        }

                        else {
                            if (x[3] <= -87.13500213623047) {
                                if (x[11] <= -11.025000095367432) {
                                    votes[3] += 1;
                                }

                                else {
                                    if (x[11] <= -5.150000095367432) {
                                        votes[2] += 1;
                                    }

                                    else {
                                        if (x[11] <= -4.705000162124634) {
                                            votes[3] += 1;
                                        }

                                        else {
                                            votes[2] += 1;
                                        }
                                    }
                                }
                            }

                            else {
                                if (x[9] <= 6.344498872756958) {
                                    if (x[3] <= -35.71000099182129) {
                                        votes[2] += 1;
                                    }

                                    else {
                                        if (x[10] <= -0.7900000168010592) {
                                            votes[3] += 1;
                                        }

                                        else {
                                            votes[0] += 1;
                                        }
                                    }
                                }

                                else {
                                    votes[0] += 1;
                                }
                            }
                        }

                        // tree #16
                        if (x[7] <= -8.795000076293945) {
                            if (x[3] <= -104.88999938964844) {
                                votes[1] += 1;
                            }

                            else {
                                if (x[0] <= -47.856849670410156) {
                                    if (x[3] <= -89.76499938964844) {
                                        if (x[1] <= 20.244525909423828) {
                                            votes[1] += 1;
                                        }

                                        else {
                                            if (x[5] <= 3.0203044414520264) {
                                                votes[3] += 1;
                                            }

                                            else {
                                                votes[2] += 1;
                                            }
                                        }
                                    }

                                    else {
                                        votes[0] += 1;
                                    }
                                }

                                else {
                                    if (x[3] <= -65.28499984741211) {
                                        votes[3] += 1;
                                    }

                                    else {
                                        votes[0] += 1;
                                    }
                                }
                            }
                        }

                        else {
                            if (x[10] <= 9.860000133514404) {
                                if (x[11] <= -13.389999866485596) {
                                    votes[3] += 1;
                                }

                                else {
                                    if (x[0] <= -6.02935004234314) {
                                        if (x[2] <= -11.204999685287476) {
                                            if (x[9] <= 4.106731176376343) {
                                                votes[2] += 1;
                                            }

                                            else {
                                                votes[1] += 1;
                                            }
                                        }

                                        else {
                                            votes[3] += 1;
                                        }
                                    }

                                    else {
                                        votes[0] += 1;
                                    }
                                }
                            }

                            else {
                                votes[0] += 1;
                            }
                        }

                        // tree #17
                        if (x[0] <= -44.50760078430176) {
                            if (x[5] <= 2.009990930557251) {
                                votes[2] += 1;
                            }

                            else {
                                if (x[1] <= 23.420690536499023) {
                                    if (x[3] <= -87.6150016784668) {
                                        votes[1] += 1;
                                    }

                                    else {
                                        if (x[11] <= -9.264999866485596) {
                                            votes[0] += 1;
                                        }

                                        else {
                                            votes[1] += 1;
                                        }
                                    }
                                }

                                else {
                                    if (x[10] <= 7.819999694824219) {
                                        if (x[11] <= -14.25) {
                                            votes[3] += 1;
                                        }

                                        else {
                                            if (x[6] <= 5.550000071525574) {
                                                votes[2] += 1;
                                            }

                                            else {
                                                votes[3] += 1;
                                            }
                                        }
                                    }

                                    else {
                                        votes[1] += 1;
                                    }
                                }
                            }
                        }

                        else {
                            if (x[4] <= -1.3710999637842178) {
                                votes[3] += 1;
                            }

                            else {
                                if (x[5] <= 4.250911116600037) {
                                    votes[0] += 1;
                                }

                                else {
                                    if (x[1] <= 13.597702503204346) {
                                        votes[0] += 1;
                                    }

                                    else {
                                        votes[3] += 1;
                                    }
                                }
                            }
                        }

                        // tree #18
                        if (x[9] <= 4.359042406082153) {
                            if (x[8] <= -5.551000118255615) {
                                if (x[1] <= 5.352567434310913) {
                                    votes[2] += 1;
                                }

                                else {
                                    votes[3] += 1;
                                }
                            }

                            else {
                                if (x[4] <= -5.824999928474426) {
                                    votes[1] += 1;
                                }

                                else {
                                    if (x[7] <= -0.17999999597668648) {
                                        if (x[4] <= 1.907800018787384) {
                                            if (x[2] <= -8.694999739527702) {
                                                votes[2] += 1;
                                            }

                                            else {
                                                votes[0] += 1;
                                            }
                                        }

                                        else {
                                            votes[0] += 1;
                                        }
                                    }

                                    else {
                                        votes[0] += 1;
                                    }
                                }
                            }
                        }

                        else {
                            if (x[6] <= 3.305000066757202) {
                                if (x[5] <= 2.472631573677063) {
                                    if (x[0] <= -41.72274971008301) {
                                        votes[1] += 1;
                                    }

                                    else {
                                        if (x[6] <= 1.0500000715255737) {
                                            votes[3] += 1;
                                        }

                                        else {
                                            votes[0] += 1;
                                        }
                                    }
                                }

                                else {
                                    if (x[0] <= -47.856849670410156) {
                                        votes[1] += 1;
                                    }

                                    else {
                                        votes[3] += 1;
                                    }
                                }
                            }

                            else {
                                if (x[0] <= -65.00994873046875) {
                                    if (x[7] <= -281.1799998283386) {
                                        votes[0] += 1;
                                    }

                                    else {
                                        votes[1] += 1;
                                    }
                                }

                                else {
                                    if (x[5] <= 5.481276512145996) {
                                        if (x[11] <= -34.80500030517578) {
                                            votes[1] += 1;
                                        }

                                        else {
                                            votes[0] += 1;
                                        }
                                    }

                                    else {
                                        if (x[10] <= -0.12000000476837158) {
                                            votes[0] += 1;
                                        }

                                        else {
                                            votes[3] += 1;
                                        }
                                    }
                                }
                            }
                        }

                        // tree #19
                        if (x[2] <= -17.630000114440918) {
                            if (x[7] <= -7.234999895095825) {
                                if (x[2] <= -38.48000144958496) {
                                    if (x[10] <= 0.025000005960464478) {
                                        votes[2] += 1;
                                    }

                                    else {
                                        if (x[1] <= 11.992955684661865) {
                                            if (x[10] <= 11.324999809265137) {
                                                votes[1] += 1;
                                            }

                                            else {
                                                votes[0] += 1;
                                            }
                                        }

                                        else {
                                            votes[1] += 1;
                                        }
                                    }
                                }

                                else {
                                    if (x[1] <= 13.261439800262451) {
                                        votes[0] += 1;
                                    }

                                    else {
                                        votes[3] += 1;
                                    }
                                }
                            }

                            else {
                                if (x[10] <= 9.680000305175781) {
                                    if (x[9] <= 2.630973219871521) {
                                        votes[2] += 1;
                                    }

                                    else {
                                        if (x[11] <= -10.350000381469727) {
                                            if (x[0] <= -60.5672492980957) {
                                                votes[3] += 1;
                                            }

                                            else {
                                                votes[0] += 1;
                                            }
                                        }

                                        else {
                                            votes[2] += 1;
                                        }
                                    }
                                }

                                else {
                                    votes[0] += 1;
                                }
                            }
                        }

                        else {
                            if (x[6] <= -0.4099999852478504) {
                                votes[3] += 1;
                            }

                            else {
                                if (x[3] <= -70.1150016784668) {
                                    if (x[5] <= 2.614070415496826) {
                                        votes[2] += 1;
                                    }

                                    else {
                                        votes[3] += 1;
                                    }
                                }

                                else {
                                    votes[0] += 1;
                                }
                            }
                        }

                        // tree #20
                        if (x[7] <= -7.234999895095825) {
                            if (x[2] <= -37.170000076293945) {
                                if (x[7] <= -287.26000022888184) {
                                    votes[0] += 1;
                                }

                                else {
                                    if (x[9] <= 4.4652910232543945) {
                                        if (x[8] <= -2.569949984550476) {
                                            votes[2] += 1;
                                        }

                                        else {
                                            votes[1] += 1;
                                        }
                                    }

                                    else {
                                        votes[1] += 1;
                                    }
                                }
                            }

                            else {
                                if (x[1] <= 13.261439800262451) {
                                    if (x[8] <= -7.450199842453003) {
                                        votes[0] += 1;
                                    }

                                    else {
                                        votes[3] += 1;
                                    }
                                }

                                else {
                                    if (x[8] <= 0.9086000062525272) {
                                        votes[3] += 1;
                                    }

                                    else {
                                        votes[2] += 1;
                                    }
                                }
                            }
                        }

                        else {
                            if (x[9] <= 4.356160879135132) {
                                if (x[8] <= -5.389650106430054) {
                                    votes[3] += 1;
                                }

                                else {
                                    if (x[8] <= 0.5814499855041504) {
                                        votes[2] += 1;
                                    }

                                    else {
                                        if (x[0] <= -79.81124877929688) {
                                            votes[3] += 1;
                                        }

                                        else {
                                            votes[2] += 1;
                                        }
                                    }
                                }
                            }

                            else {
                                votes[0] += 1;
                            }
                        }

                        // tree #21
                        if (x[2] <= -37.170000076293945) {
                            if (x[7] <= -7.21999979019165) {
                                if (x[7] <= -9.990000247955322) {
                                    votes[1] += 1;
                                }

                                else {
                                    if (x[8] <= -3.7942999601364136) {
                                        votes[2] += 1;
                                    }

                                    else {
                                        votes[1] += 1;
                                    }
                                }
                            }

                            else {
                                if (x[2] <= -49.57499885559082) {
                                    if (x[8] <= -0.5459999889135361) {
                                        votes[0] += 1;
                                    }

                                    else {
                                        votes[2] += 1;
                                    }
                                }

                                else {
                                    if (x[10] <= 9.680000305175781) {
                                        votes[2] += 1;
                                    }

                                    else {
                                        votes[0] += 1;
                                    }
                                }
                            }
                        }

                        else {
                            if (x[7] <= -3.834999918937683) {
                                if (x[11] <= -4.715000152587891) {
                                    if (x[10] <= 16.15499973297119) {
                                        votes[3] += 1;
                                    }

                                    else {
                                        votes[0] += 1;
                                    }
                                }

                                else {
                                    votes[2] += 1;
                                }
                            }

                            else {
                                if (x[5] <= 2.421581745147705) {
                                    votes[2] += 1;
                                }

                                else {
                                    votes[0] += 1;
                                }
                            }
                        }

                        // tree #22
                        if (x[11] <= -10.295000076293945) {
                            if (x[3] <= -88.75499725341797) {
                                if (x[9] <= 8.512525081634521) {
                                    if (x[3] <= -103.8900032043457) {
                                        votes[1] += 1;
                                    }

                                    else {
                                        votes[3] += 1;
                                    }
                                }

                                else {
                                    if (x[1] <= 23.947426795959473) {
                                        votes[1] += 1;
                                    }

                                    else {
                                        if (x[7] <= -12.53499984741211) {
                                            votes[3] += 1;
                                        }

                                        else {
                                            votes[1] += 1;
                                        }
                                    }
                                }
                            }

                            else {
                                if (x[4] <= -2.1479999721050262) {
                                    if (x[10] <= 11.03499984741211) {
                                        votes[3] += 1;
                                    }

                                    else {
                                        votes[0] += 1;
                                    }
                                }

                                else {
                                    if (x[7] <= -7.884999752044678) {
                                        if (x[5] <= 4.924936771392822) {
                                            votes[0] += 1;
                                        }

                                        else {
                                            votes[1] += 1;
                                        }
                                    }

                                    else {
                                        votes[0] += 1;
                                    }
                                }
                            }
                        }

                        else {
                            if (x[7] <= -7.204999923706055) {
                                votes[1] += 1;
                            }

                            else {
                                if (x[2] <= -5.059999987483025) {
                                    votes[2] += 1;
                                }

                                else {
                                    votes[0] += 1;
                                }
                            }
                        }

                        // tree #23
                        if (x[11] <= -10.350000381469727) {
                            if (x[2] <= -37.170000076293945) {
                                if (x[10] <= -0.4449999928474426) {
                                    votes[3] += 1;
                                }

                                else {
                                    if (x[3] <= -89.76499938964844) {
                                        if (x[9] <= 3.4959895610809326) {
                                            votes[2] += 1;
                                        }

                                        else {
                                            votes[1] += 1;
                                        }
                                    }

                                    else {
                                        if (x[10] <= 13.759999752044678) {
                                            votes[0] += 1;
                                        }

                                        else {
                                            votes[1] += 1;
                                        }
                                    }
                                }
                            }

                            else {
                                if (x[4] <= -2.233799993991852) {
                                    if (x[11] <= -30.440000534057617) {
                                        votes[1] += 1;
                                    }

                                    else {
                                        votes[3] += 1;
                                    }
                                }

                                else {
                                    votes[0] += 1;
                                }
                            }
                        }

                        else {
                            if (x[10] <= 8.09000015258789) {
                                if (x[6] <= -0.7850000113248825) {
                                    votes[3] += 1;
                                }

                                else {
                                    if (x[11] <= -4.805000066757202) {
                                        votes[2] += 1;
                                    }

                                    else {
                                        if (x[6] <= 6.515000104904175) {
                                            votes[2] += 1;
                                        }

                                        else {
                                            votes[3] += 1;
                                        }
                                    }
                                }
                            }

                            else {
                                if (x[3] <= -55.529998779296875) {
                                    votes[1] += 1;
                                }

                                else {
                                    votes[2] += 1;
                                }
                            }
                        }

                        // tree #24
                        if (x[10] <= 8.275000095367432) {
                            if (x[8] <= -6.385800123214722) {
                                if (x[2] <= -41.89500045776367) {
                                    votes[1] += 1;
                                }

                                else {
                                    if (x[5] <= 7.4838011264801025) {
                                        votes[3] += 1;
                                    }

                                    else {
                                        votes[0] += 1;
                                    }
                                }
                            }

                            else {
                                if (x[3] <= -72.53999900817871) {
                                    if (x[10] <= 5.309999942779541) {
                                        votes[2] += 1;
                                    }

                                    else {
                                        votes[3] += 1;
                                    }
                                }

                                else {
                                    if (x[4] <= -1.3710999637842178) {
                                        votes[3] += 1;
                                    }

                                    else {
                                        if (x[0] <= -38.932498931884766) {
                                            votes[2] += 1;
                                        }

                                        else {
                                            votes[0] += 1;
                                        }
                                    }
                                }
                            }
                        }

                        else {
                            if (x[1] <= 13.550009727478027) {
                                if (x[9] <= 7.768910884857178) {
                                    if (x[5] <= 3.8480337858200073) {
                                        votes[1] += 1;
                                    }

                                    else {
                                        votes[0] += 1;
                                    }
                                }

                                else {
                                    votes[0] += 1;
                                }
                            }

                            else {
                                if (x[2] <= -21.959999322891235) {
                                    votes[1] += 1;
                                }

                                else {
                                    if (x[11] <= -27.510000228881836) {
                                        votes[1] += 1;
                                    }

                                    else {
                                        votes[3] += 1;
                                    }
                                }
                            }
                        }

                        // tree #25
                        if (x[3] <= -87.6150016784668) {
                            if (x[10] <= 5.559999942779541) {
                                if (x[7] <= -12.15500020980835) {
                                    votes[1] += 1;
                                }

                                else {
                                    if (x[11] <= -10.869999885559082) {
                                        if (x[10] <= 1.1800000071525574) {
                                            votes[3] += 1;
                                        }

                                        else {
                                            votes[2] += 1;
                                        }
                                    }

                                    else {
                                        votes[2] += 1;
                                    }
                                }
                            }

                            else {
                                if (x[8] <= -9.258699893951416) {
                                    votes[3] += 1;
                                }

                                else {
                                    if (x[2] <= -21.924999237060547) {
                                        votes[1] += 1;
                                    }

                                    else {
                                        if (x[7] <= -11.170000076293945) {
                                            votes[3] += 1;
                                        }

                                        else {
                                            votes[1] += 1;
                                        }
                                    }
                                }
                            }
                        }

                        else {
                            if (x[4] <= -2.319349944591522) {
                                votes[3] += 1;
                            }

                            else {
                                if (x[3] <= -51.80000114440918) {
                                    votes[0] += 1;
                                }

                                else {
                                    if (x[2] <= -28.514999389648438) {
                                        votes[2] += 1;
                                    }

                                    else {
                                        votes[0] += 1;
                                    }
                                }
                            }
                        }

                        // tree #26
                        if (x[9] <= 4.4652910232543945) {
                            if (x[2] <= -9.40999972820282) {
                                if (x[4] <= -4.095149874687195) {
                                    votes[1] += 1;
                                }

                                else {
                                    if (x[5] <= 5.020208120346069) {
                                        if (x[3] <= -73.20999908447266) {
                                            votes[2] += 1;
                                        }

                                        else {
                                            if (x[3] <= -56.420000076293945) {
                                                votes[0] += 1;
                                            }

                                            else {
                                                votes[2] += 1;
                                            }
                                        }
                                    }

                                    else {
                                        votes[3] += 1;
                                    }
                                }
                            }

                            else {
                                votes[3] += 1;
                            }
                        }

                        else {
                            if (x[1] <= 12.169419765472412) {
                                if (x[4] <= -2.1305500119924545) {
                                    if (x[1] <= 8.445397138595581) {
                                        votes[3] += 1;
                                    }

                                    else {
                                        votes[1] += 1;
                                    }
                                }

                                else {
                                    if (x[2] <= -47.28999900817871) {
                                        votes[1] += 1;
                                    }

                                    else {
                                        votes[0] += 1;
                                    }
                                }
                            }

                            else {
                                if (x[3] <= -98.25500106811523) {
                                    if (x[0] <= -50.98134994506836) {
                                        votes[1] += 1;
                                    }

                                    else {
                                        votes[3] += 1;
                                    }
                                }

                                else {
                                    if (x[9] <= 9.542675971984863) {
                                        votes[3] += 1;
                                    }

                                    else {
                                        if (x[8] <= -9.11240005493164) {
                                            votes[3] += 1;
                                        }

                                        else {
                                            votes[1] += 1;
                                        }
                                    }
                                }
                            }
                        }

                        // tree #27
                        if (x[7] <= -6.419999837875366) {
                            if (x[10] <= 8.275000095367432) {
                                if (x[0] <= -57.742401123046875) {
                                    if (x[2] <= -48.19999885559082) {
                                        votes[1] += 1;
                                    }

                                    else {
                                        votes[2] += 1;
                                    }
                                }

                                else {
                                    if (x[1] <= 14.948940753936768) {
                                        if (x[2] <= -38.654998779296875) {
                                            votes[1] += 1;
                                        }

                                        else {
                                            votes[0] += 1;
                                        }
                                    }

                                    else {
                                        votes[3] += 1;
                                    }
                                }
                            }

                            else {
                                if (x[11] <= -19.90999984741211) {
                                    if (x[3] <= -77.84500122070312) {
                                        votes[1] += 1;
                                    }

                                    else {
                                        votes[0] += 1;
                                    }
                                }

                                else {
                                    if (x[11] <= -17.364999771118164) {
                                        votes[3] += 1;
                                    }

                                    else {
                                        if (x[7] <= -9.46500015258789) {
                                            votes[1] += 1;
                                        }

                                        else {
                                            votes[0] += 1;
                                        }
                                    }
                                }
                            }
                        }

                        else {
                            if (x[8] <= -4.052600026130676) {
                                if (x[10] <= 1.2649999260902405) {
                                    votes[3] += 1;
                                }

                                else {
                                    votes[0] += 1;
                                }
                            }

                            else {
                                if (x[10] <= 5.264999866485596) {
                                    if (x[11] <= -1.1050000237300992) {
                                        votes[2] += 1;
                                    }

                                    else {
                                        votes[0] += 1;
                                    }
                                }

                                else {
                                    if (x[8] <= 1.2788499891757965) {
                                        votes[0] += 1;
                                    }

                                    else {
                                        if (x[6] <= 5.950000047683716) {
                                            votes[2] += 1;
                                        }

                                        else {
                                            votes[0] += 1;
                                        }
                                    }
                                }
                            }
                        }

                        // tree #28
                        if (x[1] <= 14.182619571685791) {
                            if (x[5] <= 1.37466561794281) {
                                if (x[2] <= -22.019999384880066) {
                                    votes[2] += 1;
                                }

                                else {
                                    if (x[3] <= -7.534999892115593) {
                                        votes[3] += 1;
                                    }

                                    else {
                                        votes[0] += 1;
                                    }
                                }
                            }

                            else {
                                if (x[4] <= -2.3314499258995056) {
                                    if (x[7] <= -282.6949996948242) {
                                        votes[0] += 1;
                                    }

                                    else {
                                        votes[1] += 1;
                                    }
                                }

                                else {
                                    if (x[3] <= -91.68999862670898) {
                                        votes[3] += 1;
                                    }

                                    else {
                                        if (x[8] <= 0.7048999965190887) {
                                            votes[0] += 1;
                                        }

                                        else {
                                            if (x[2] <= -37.804999351501465) {
                                                votes[1] += 1;
                                            }

                                            else {
                                                votes[0] += 1;
                                            }
                                        }
                                    }
                                }
                            }
                        }

                        else {
                            if (x[2] <= -24.454999923706055) {
                                if (x[6] <= 1.2600000500679016) {
                                    if (x[5] <= 2.926569104194641) {
                                        votes[3] += 1;
                                    }

                                    else {
                                        votes[1] += 1;
                                    }
                                }

                                else {
                                    if (x[10] <= 10.009999990463257) {
                                        votes[2] += 1;
                                    }

                                    else {
                                        votes[1] += 1;
                                    }
                                }
                            }

                            else {
                                votes[3] += 1;
                            }
                        }

                        // tree #29
                        if (x[5] <= 4.681362152099609) {
                            if (x[6] <= 3.365000009536743) {
                                if (x[4] <= -3.7790499925613403) {
                                    if (x[10] <= 6.474999904632568) {
                                        votes[3] += 1;
                                    }

                                    else {
                                        votes[1] += 1;
                                    }
                                }

                                else {
                                    if (x[0] <= -24.531449869275093) {
                                        if (x[11] <= -15.394999504089355) {
                                            votes[1] += 1;
                                        }

                                        else {
                                            votes[2] += 1;
                                        }
                                    }

                                    else {
                                        votes[0] += 1;
                                    }
                                }
                            }

                            else {
                                if (x[1] <= 14.867200374603271) {
                                    if (x[9] <= 4.928992033004761) {
                                        if (x[3] <= -60.69000053405762) {
                                            votes[0] += 1;
                                        }

                                        else {
                                            if (x[5] <= 2.8182748556137085) {
                                                votes[0] += 1;
                                            }

                                            else {
                                                votes[1] += 1;
                                            }
                                        }
                                    }

                                    else {
                                        votes[0] += 1;
                                    }
                                }

                                else {
                                    if (x[6] <= 7.755000114440918) {
                                        votes[2] += 1;
                                    }

                                    else {
                                        if (x[7] <= -3.0049999952316284) {
                                            if (x[4] <= -0.771699994802475) {
                                                votes[2] += 1;
                                            }

                                            else {
                                                votes[3] += 1;
                                            }
                                        }

                                        else {
                                            votes[0] += 1;
                                        }
                                    }
                                }
                            }
                        }

                        else {
                            if (x[5] <= 8.517995357513428) {
